svm_type c_svc
kernel_type rbf
gamma 0.5
nr_class 2
total_sv 28
rho 0.258549
label 2 1
nr_sv 12 16
SV
1 1:0.4205904 2:0.82666762 
1 1:-0.066302565 2:1.7816937 
0.4774847931039907 1:0.50170418 2:-0.039101382 
0.6871787397714536 1:-0.054817181 2:1.5769245 
1 1:3.3524012 2:-0.095425183 
0.3497733559544608 1:-0.16043658 2:1.8350582 
0.3004437044650175 1:-0.18227283 2:2.7926635 
1 1:-0.12144793 2:3.5096711 
1 1:3.3575377 2:-0.1080149 
1 1:-0.29105662 2:3.774597 
1 1:3.297613 2:-0.13304665 
0.9742643375815077 1:-0.39216155 2:-0.38850532 
-0.2006331779362577 1:4.3453268 2:-0.41279029 
-0.6571771238561822 1:0.68403604 2:5.2479047 
-1 1:0.11508468 2:1.8682249 
-1 1:3.7157603 2:1.1481505 
-1 1:4.3453268 2:-0.41279029 
-0.9822181373605724 1:4.3453268 2:-0.41279029 
-0.06572911901367187 1:3.7219731 2:3.4330254 
-0.03896299281174401 1:4.3453268 2:3.2949254 
-0.0871779720644644 1:1.2021855 2:2.8858063 
-0.5939572002278619 1:2.9792257 2:1.4893814 
-1 1:0.17719646 2:0.63508229 
-0.3722888904964803 1:3.5902515 2:5.2479047 
-1 1:0.79296061 2:2.6041735 
-1 1:0.79633727 2:3.9410109 
-0.4283716340413299 1:4.3453268 2:3.4177355 
-0.3626286830678657 1:4.3453268 2:5.2479047 
